{"bias": -0.2064572, "weight": [0.442643, 0.092741, 0.367934, -0.034531, 0.12085, 0.036158, -0.080065, 0.123035, 0.111238, 0.048867, -0.128795, 0.168314, -0.017697, 0.034076, 0.062157, 0.036854, -0.103199, 0.101136, 0.091096, -0.201328, 0.17406, -1.354805, 0.078786, -0.07131, 0.087022, -0.080399, -0.005648, 0.096216, -0.084222, -0.043956, 0.0, -0.036284, -0.0, 0.365681, 0.12165, 0.371444, 0.305065, 0.151085, 0.31895, 0.22749, 0.165872, 0.268565, 0.220603, -0.102408, 0.240894, 0.195115, -0.262517, 0.351226, 0.166562, -0.493721, 0.443082, 0.076783, -0.649736, 0.463316, -0.195316, -0.447098, 0.088718, -0.015473, 0.102677, 0.009912, -0.089261, 0.008548, 0.137966, 0.517064, -0.157311, -0.224818, 0.021734, -0.645339, 0.397823, -0.096079, -0.452811, 0.295946, -0.354672, -0.216278, 0.148231, -1.333458, -0.031852, 0.009576, 0.0106, -0.690924, 0.490823, -0.384419, 0.211484, -0.287028, -0.411229, 0.140533, -0.219946, -0.438299, 0.188173, -0.232102, -0.579051, 0.130999, -0.20066, -0.770312, -0.119261, -0.011463, -0.117499, -0.018272, -0.20024, -1.555591, 0.261569, -0.2541, 0.330575, -0.169431, -0.017184, -0.666398, -0.02919, -0.220455, 0.070404, -0.055466, 0.203451, 0.441207, 0.108183, 0.291545, 0.278011, 0.170314, 0.230035, 0.277353, 0.229879, 0.113639, 0.159495, 0.370386, -0.040899, 0.244294, 0.23623, 0.090345, 0.155667, 0.340243, -0.027149, -0.037992, -0.090826, 0.241326, -0.077425, 0.057059, 0.053929, -0.037604, -0.021127, 0.071576, -0.048352, 0.329419, -0.501118, 0.123932, -0.107554, 0.210569, -0.082818, -0.14619, 0.233713, -0.058698, -0.147053, 0.226966, 0.253533, -0.092253, 0.198106, 0.018192, -0.09341, 0.117318, 0.067912, 0.285276, -0.354354, 0.012417, 0.414528, -0.47268, 0.41857, -0.134948, -0.25706, 0.368468, -0.399279, 0.170848, -0.397763, -0.050629, -0.057998, -0.082459, -0.010871, 0.260976, 0.425981, -0.091838, 0.004375, -0.132513, -0.146984, 0.226162, -0.181317, -0.04262, 0.190251, 0.03712, 0.589153, -0.185401, 0.01041, 0.493905, -0.188391, 0.184802, 0.481762, -0.613963, -0.104867, -0.147125, 0.239285, 0.165101, -0.047097, -0.056281, 0.207085, -0.055192, -0.071989, 0.232918, -0.135728, -0.163925, 0.246803, -0.262375, -0.157317, 0.121373, -0.201252, -0.073622, 0.16005, 0.285012, -0.594162, 0.336695, -0.254846, -0.187535, 0.366333, 0.145313, 0.260903, 0.266814, 0.242033, 0.112972, 0.16235, 0.354058, -0.029853, -0.15828, -0.098302, 0.242124, 0.018534, 0.537051, -0.186596, 0.027021, 0.308184, -0.099368, 0.003192, 0.470557, -0.152929, -0.04547, -0.119898, 0.183086, 0.116414, 0.294381, -0.003445, 0.163113, 0.229659, 0.121764, 0.202352, 0.177523, 0.209817, -0.110923, -0.456874, 0.096973, 0.102182, -0.593324, 0.399005, 0.180171, -0.444265, 0.362056, 0.173124, -0.205521, 0.281174, 0.193143, -0.069581, 0.179467, 0.100876, 0.159914, -0.039053, 0.072519, 0.086606, -0.026576, 0.052079, -0.003136, -0.006113, 0.031693, 0.003327, 0.035466, -0.088182, 0.050341, 0.184855, 0.455723, 0.032467, 0.026054, -0.084196, 0.146155, 0.109777, 0.072377, 0.31991, -0.103757, 0.039922, 0.301885, -0.10307, -0.14411, 0.032365, 0.141923, -0.149971, -0.089266, 0.218166, -0.161878, 0.004251, 0.154472, 0.133841, -0.077583, 0.238111, 0.137624, -0.048359, 0.239063, -0.09105, -0.123854, 0.239315, 0.332379, -0.181589, -0.242245, 0.181118, -0.281667, -0.117283, 0.143884, 0.35781, -0.425874, -0.00464, -0.198141, 0.18993, 0.426162, -0.466447, 0.194131, 0.077596, -0.145027, -0.063374, 0.094867, -0.098181, -0.102152, -0.891696, -0.106522, 0.074739, -0.642397, -0.215545, 0.028497, -0.119913, -0.696396, 0.544795, -0.658477, 0.079205, -0.246541, 0.103976, -0.131704, 0.209092, -0.028277, -0.122837, 0.163537, 0.397743, -0.194565, 0.058912, -0.497034, -0.254222, 0.235507, -0.394365, -0.256772, 0.312016, -0.305586, -0.269163, 0.400785, -0.208737, -0.368471, 0.422298, -0.14881, -0.383638, 0.426859, 0.054745, -0.182644, 0.17777, 0.455552, -0.121396, 0.125225, -0.331912, 0.094899, -0.362771, -0.019495, 0.064943, 0.038106, 0.058642, -0.070761, 0.238189, 0.510902, -0.115865, -0.040189, -0.085921, -0.367687, 0.412316, -0.120489, -0.07145, 0.268201, -1.420546, 0.062011, -0.128236, -0.010303, -0.135178, 0.150337, 0.469513, 0.00654, -0.041782, -0.392971, -0.57557, 0.413388, 0.024493, -0.119138, 0.122, 0.155315, -0.149335, 0.059052, 0.404707, -0.210214, -0.065757, 0.482316, -0.028832, 0.08245, 0.267725, -0.157681, 0.140487, 0.365312, -0.19665, -0.097918, -0.130239, 0.064859, -0.284059, -0.097599, 0.120149, 0.120027, 0.04491, -0.062334, 0.222699, -0.42798, -0.078526, -0.25511, -0.544787, -0.270229, 0.183011, -0.125057, -0.520116, 0.344865, 0.00582, 0.35976, -0.088478, 0.403755, -0.073922, 0.13548, -0.137729, 0.11836, -0.420418, 0.11088, 0.014882, -0.371992, 0.24749, -0.087055, -0.264615, 0.054659, -0.101908, -0.032506, -0.162414, 0.138911, -0.440925, -0.029297, -0.679089, 0.424572, -0.048383, -0.726921, 0.484075, -0.216549, -0.693955, 0.508612, -0.082015, 0.034517, -0.437586, -0.24584, 0.621074, -0.775216, -0.311295, 1.29267, -1.426841, -0.249899, 1.508377, -1.587983, -0.373289, 1.272551, -1.360823, -0.797913, 0.875957, -0.972973, 0.546856, -0.142769, -0.137747, -0.9776, -0.076132, 0.048964, -0.127843, 0.214158, 0.061141, -0.072402, 0.042547, 0.171471, -0.125635, -0.156725, 0.217895, -0.099777, 0.134489, 0.09507, 0.10868, -0.139931, 0.073055, 0.01695, -0.054013, -0.063151, -0.059315, 0.018235, -0.178908, -0.171749, 0.057429, -0.326018, 0.458665, -0.195168, 0.030493, -0.334784, -0.135903, -0.003124, 0.057865, -0.138007, 0.184963, -0.159656, 0.086338, -0.383161, -0.01753, 0.094695, -0.422424, 0.473559, -0.040125, 0.082561, 0.15096, 0.036882, 0.079793, 0.116116, -0.075214, 0.131316, 0.126064, -0.238891, 0.179533, 0.084913, -0.329246, 0.251626, -0.00304, -0.336667, 0.142708, 0.091619, 0.42826, -0.116753, 0.079465, 0.470318, -0.120905, 0.07243, 0.49604, -0.132815, -0.085858, 0.044074, 0.211306, 0.241499, -0.082442, 0.168064, 0.063482, -0.150823, 0.186869, -0.039223, -0.426448, 0.307843, -0.192694, -0.389917, 0.253914, 0.091601, 0.381722, -0.073228, 0.206777, -0.106043, 0.149476, 0.28152, -0.451938, 0.294844, -0.041864, -0.181268, -0.058648, 0.056799, -0.166468, 0.14715, 0.054966, -0.195097, 0.159037, 0.073051, -0.200967, 0.165598, 0.032481, -0.111703, 0.157336, -0.161448, -0.035219, -0.300801, -0.178316, -0.25258, -0.12093, -0.142413, -0.261384, -0.085068, -0.035031, -0.039272, 0.09806, -0.087999, -0.042195, 0.223553, -0.006653, -0.101999, 0.001046, 0.046518, -0.079276, 0.193665, -0.078425, -0.0056, 0.208898, 0.0356, -0.070601, 0.127827, -0.161816, -0.049601, -0.236163, -0.004722, -0.114528, 0.201845, -0.004013, -0.041196, 0.016713, -0.069105, -0.007911, -0.083484, -0.015192, -0.002549, 0.183972, 0.342021, -0.089815, 0.134262, 0.103412, -0.116321, 0.109004, 0.389768, -0.074851, 0.138205, -0.106989, 0.017817, 0.177749, 0.07159, -0.101838, 0.211324, -0.028524, -0.14149, 0.161062, -0.108653, -0.162036, 0.236488, -0.031381, -0.050936, 0.138924, -0.114786, -0.208923, 0.135028, -0.218546, 0.000448, -0.024373, -0.293714, 0.07204, -0.108617, -0.338319, 0.153458, -0.158703, -0.46877, 0.172043, -0.210097, -1.003821, 0.029377, -0.221161, 0.438971, -0.087853, 0.031817, -0.742102, -0.150321, 0.094543, -0.381824, -0.224826, 0.199518, -0.213034, -0.341451, 0.336888, -0.106467, -0.500603, 0.398954, -0.08006, -0.53945, 0.466576, -0.079911, -0.526443, 0.467052, 0.449013, -0.039358, 0.006587, -0.12879, -0.148363, 0.23515, 0.044971, -0.103756, 0.170304, -0.060431, -0.059381, 0.114993, -0.034825, -0.042782, 0.080545, -0.047596, -0.095704, 0.129152, -0.136968, -0.119685, 0.204369, -0.037851, 0.002586, 0.059982, -0.099831, 0.05691, 0.123718, -0.250649, -0.64435, 0.51286, -0.078972, -0.531363, 0.424827, -0.00637, -0.408454, 0.383812, -1.233567, 0.56696, -0.623548, -0.953376, 0.085658, -0.173305, 0.053082, -0.15452, 0.134329, 0.418023, 0.272124, -0.305871, -0.017964, 0.067061, 0.156109, -0.563268, -0.42487, -0.009588, -0.568731, -0.689492, 0.535677, -0.46079, -0.663683, 0.541059, -0.25911, -0.413718, 0.357459, 0.493603, 0.265443, -0.318874, -0.503436, -0.461906, 0.458991, -0.050463, 0.48983, -0.401869, 0.049205, 0.455826, -0.369684, -0.085691, 0.493041, -0.333417, -0.060775, 0.493821, -0.345129, 0.266784, 0.012963, -0.10877, 0.107359, -0.016994, -0.359036, 0.561906, 0.893994, -0.847978, -0.244166, -0.410734, -0.157927, 0.142555, 0.101478, -0.290659, 0.03171, -0.011951, 0.188188, 0.417183, 0.139627, 0.266658, 0.262321, 0.18067, 0.203076, 0.297029, 0.254944, 0.045883, 0.096861, 0.372478, -0.18931, 0.162692, 0.248881, 0.027586, 0.039867, 0.358913, -0.140702, -0.131364, -0.035185, 0.106827, 0.041081, 0.087911, 0.028399, 0.052907, 0.003399, 0.04815, 0.283541, -0.209453, -0.051771, -0.022436, -0.115265, 0.194603, 0.106492, -0.084523, 0.186946, 0.11792, -0.104593, 0.189604, -0.036724, -0.082468, 0.135469, 0.04634, -0.103091, 0.084227, 0.254521, -0.103374, 0.056103, 0.277777, -0.12856, 0.024213, -0.289028, -0.341061, -0.011545, 0.014666, 0.066843, -0.132472, 0.072393, 0.283148, -0.242719, -0.054858, 0.067004, 0.065679, 0.064535, 0.017807, -0.172127, 0.058082, -0.048706, 0.214876, 0.055304, 0.070755, 0.241764, -0.275242, 0.602836, -0.484516, -0.185174, 0.521986, -0.450806, 0.31025, -0.340883, 0.072799, 0.100718, -0.064964, 0.211765, 0.170066, -0.000844, 0.024268, 0.275827, -0.2151, 0.131796, -0.087986, -0.156928, 0.038408, -0.062999, -0.404147, -0.031168, 0.009904, -0.178914, 0.065616, 0.281861, -0.408532, -0.061071, -0.252223, -0.497713, -0.113256, 0.328207, 0.163325, 0.236896, 0.22158, 0.262759, 0.045778, 0.081263, 0.367169, -0.148721, 0.053312, 0.019883, 0.244036, -0.225831, 0.569123, -0.463229, -0.11222, 0.327991, -0.292489, -0.160926, 0.488903, -0.403004, 0.03908, -0.08638, 0.119573, 0.029324, 0.320043, -0.125841, 0.112964, 0.240767, 0.044159, 0.177011, 0.179793, 0.172062, -0.137816, -0.422597, 0.084732, 0.062029, -0.628686, 0.383607, 0.127328, -0.469459, 0.339289, 0.165204, -0.230406, 0.228358, 0.190929, -0.077378, 0.122998, 0.042296, 0.171219, -0.18037, 0.051836, 0.115588, -0.150427, 0.024616, 0.018179, -0.126183, -0.049912, -0.016966, -0.0922, -0.009089, 0.098915, 0.087093, -0.455723, -0.032467, -0.026054, -0.094073, 0.313633, -0.299147, -0.079077, 0.318979, -0.291961, -0.015165, 0.086406, 0.15321, 0.02245, 0.033851, 0.234758, 0.026664, 0.08704, 0.193709, -0.042884, -0.096087, 0.200661, -0.015276, -0.043565, 0.204584, 0.114372, -0.065404, 0.207179, -0.120216, -0.256748, 0.028258, 0.036383, -0.304485, 0.049076, 0.312813, -0.312446, 0.14326, -0.109317, -0.200327, 0.079429, 0.142637, -0.168755, -0.018121, 0.017673, -0.116691, 0.010447, -0.043747, -0.067668, 0.033184, 0.160351, -0.119004, 0.071738, 0.209329, -0.11031, 0.007811, -0.319037, -0.340223, 0.362322, 0.180624, 0.204114, -0.33649, -0.004125, -0.144569, 0.194565, 0.079387, -0.070658, 0.12197, -0.186293, -0.303423, -0.080991, 0.254428, -0.261844, 0.282653, 0.357392, -0.319567, 0.429264, 0.191883, -0.252156, 0.444624, -0.029511, -0.192825, 0.372829, -0.052495, -0.102779, 0.325569, 0.106067, -0.185832, 0.153311, -0.232814, -0.179397, -0.03687, 0.159072, -0.014554, -0.264378, 0.015291, 0.074793, 0.020701, 0.001797, -0.086304, 0.209017, -0.709971, -0.328854, -0.004843, -0.004092, -0.078207, 0.262207, 0.059664, -0.007272, 0.239415, 0.513827, 0.509992, -0.555608, 0.10098, -0.096816, 0.123482, -0.238259, 0.062108, -0.099585, -0.040836, -0.154681, 0.098262, 0.081372, -0.113913, 0.079693, 0.298424, -0.083088, -0.242014, 0.283976, -0.096727, -0.251514, -0.3448, -0.145677, -0.115742, 0.274252, -0.078894, -0.192395, -0.339518, -0.453685, -0.098732, 0.115815, 0.049037, -0.452159, -0.065312, 0.145092, 0.121484, 0.027149, -0.0504, 0.204562, 0.186211, 0.056492, -0.34467, -0.235549, -0.685184, 0.545103, -0.514752, -0.958599, 0.769821, -0.171731, 0.362874, -0.298788, -0.095573, -0.054404, -0.025004, -0.053076, 0.108406, -0.482212, 0.104082, -0.03477, -0.467288, 0.213525, -0.089018, -0.396928, -0.531251, -0.88504, 0.70367, -0.467517, -0.64847, 0.522696, -0.242321, -0.413969, 0.334508, 0.144393, -0.177199, -0.274087, -0.370149, 1.478002, -1.34135, -0.470576, 2.481869, -2.212576, -0.615868, 2.87021, -2.471246, -0.514163, 2.614226, -2.222088, -0.138208, 2.032823, -1.770284, -0.76131, -0.384509, 0.024057, 0.079275, -0.223815, 0.13396, -0.04105, 0.091068, 0.137291, 0.075555, -0.053246, 0.199398, -0.099399, 0.166104, 0.09815, 0.252089, -0.026598, -0.316685, 0.200202, 0.023219, -0.378454, 0.016627, 0.063672, -0.436316, 0.254186, -0.046467, -0.168763, -0.094167, 0.43303, -0.422262, 0.056659, -0.14567, 0.167738, 0.031333, 0.030933, -0.50536, -0.172501, -0.053072, -0.148191, 0.136309, 0.028229, -0.008748, 0.132094, -0.080831, 0.046435, 0.076745, -0.267601, 0.105967, 0.005823, -0.394227, 0.167885, -0.126581, -0.354055, 0.074688, -0.081056, 0.439502, -0.301965, -0.087967, 0.471597, -0.330014, -0.094554, 0.49765, -0.357626, -0.028109, 0.08163, 0.0517, 0.091455, -0.021865, 0.061208, 0.050408, -0.15424, 0.177243, -0.000314, -0.008585, 0.076323, -0.099416, -0.002766, 0.009484, -0.094206, 0.381792, -0.256967, 0.230602, -0.015582, -0.062971, 0.090212, 0.004242, -0.017668, 0.040106, -0.17718, -0.178411, 0.101488, -0.194048, 0.14366, 0.052639, -0.086525, 0.142296, -0.053138, -0.238473, -0.149486, 0.080339, 0.016032, -0.086715, 0.071255, 0.029292, 0.204643, 0.050534, -0.077329, -0.139602, 0.149664, -0.007766, 0.157465, 0.128583, 0.046516, 0.139713, 0.216737, 0.001228, 0.023739, 0.011088, -0.052167, -0.347714, 0.059263, -0.090386, 0.175176, 0.186529, 0.009046, -0.204102, 0.159294, 0.023586, -0.273168, 0.106502, 0.061975, -0.032884, 0.084032, -0.021892, -0.063902, 0.239403, -0.01862, -0.098391, 0.062573, -0.033511, -0.163564, 0.202029, 0.07082, 0.055307, 0.009807, -0.114739, 0.186181, 0.069408, -0.092203, 0.100632, 0.10509, -0.0674, 0.203696, 0.057109, -0.016766, 0.103653, 0.070103, 0.08868, -0.035203, 0.135399, 0.086369, -0.005807, 0.181738, 0.042795, 0.010536, 0.182032, 0.072457, -0.002787, 0.229832, 0.14436, -0.131548, 0.288626, 0.249609, -0.412372, -0.343353, -0.300386, -0.160072, 0.26354, -0.068518, 0.043575, 0.065651, -0.260202, 0.291732, -0.133398, -0.356749, 0.418256, -0.289756, -0.368009, 0.383506, -0.292183, -0.245584, 0.367372, -0.194225, -0.183747, 0.299253, -0.59341, -0.201762, -0.015162, 0.097235, -0.047445, 0.213469, 0.034688, -0.11578, 0.13822, 0.051651, -0.009729, 0.061093, 0.041553, 0.016649, 0.075708, 0.048116, -0.039345, 0.088984, 0.059714, 0.000269, 0.224456, 0.041639, 0.050591, 0.050072, -0.036938, 0.111012, 0.131815, -0.143034, -0.24058, 0.276991, -0.068885, -0.140231, 0.204119, 0.07678, -0.060919, 0.192249, 0.265629, 1.485361, -1.344658, 0.213212, 0.497077, -0.430687, -2.263529, 0.89799, -0.280639, -2.205813, 0.876848, -0.17794, -2.192356, 1.043319, -0.281959, -2.231101, 0.887514, -0.388223, -2.30192, 0.692304, -0.239798, -0.498365, 0.57444, -0.223443, -0.539783, 0.650701, -0.154376, -0.516784, 0.565884, -0.109983, -0.506022, 0.465643, -0.279517, -0.476114, 0.494969, -0.275235]}