{"bias": 0, "weight": [0.489251, -0.351681, 0.616841, -0.092736, -0.04999, -0.209667, -0.151741, 0.102741, -0.080201, -0.116773, -0.368532, 0.100878, -0.08589, -0.14264, -0.149918, -0.053431, -0.322679, -0.033827, -0.141041, -0.545269, 0.155393, -1.591622, 0.02951, 0.080959, -0.107521, -0.217365, -0.067034, -0.080606, -0.155057, -0.127755, 0.0, 0.059476, -0.0, 0.415016, -0.196485, 0.573782, 0.339226, 0.010448, 0.420818, 0.248212, 0.266541, 0.371883, 0.281594, -0.263017, 0.389674, 0.291656, -0.323014, 0.556187, 0.255758, -0.574881, 0.605191, 0.11274, -0.680289, 0.598315, 0.059278, -0.421217, -0.036254, -0.072083, -0.093602, -0.20845, -0.388429, -0.032406, -0.049086, 1.011813, -0.323584, -0.249811, 0.175601, -0.902725, 0.668843, 0.057674, -0.768145, 0.590094, -0.296025, -0.475597, 0.37491, -1.635691, -0.085147, 0.146161, 0.023187, -0.810634, 0.572044, -0.405134, 0.499046, -0.267272, -0.549973, 0.42925, -0.245188, -0.394896, 0.421273, -0.236974, -0.444229, 0.326638, -0.237975, -0.932948, -0.195757, 0.090525, 0.022157, 0.075882, -0.065554, -1.853032, 0.388923, -0.250606, 0.559256, -0.349495, -0.010021, -0.895873, 0.089684, -0.287978, 0.251365, -0.158068, 0.312628, 0.473997, -0.289563, 0.594146, 0.346205, 0.129116, 0.352161, 0.23871, 0.045075, 0.378383, 0.169459, 0.390817, 0.096001, 0.323365, 0.276138, 0.20832, 0.264482, 0.48386, 0.001714, 0.28819, 0.115303, 0.047975, -0.187225, -0.12279, -0.177749, -0.173305, -0.206357, -0.121144, 0.289478, 0.519685, -0.830313, 0.06325, -0.381477, 0.354088, -0.417874, -0.20357, 0.215265, -0.347992, -0.22138, 0.281504, 0.732489, -0.284041, 0.219299, -0.125632, -0.304522, 0.002184, 0.346312, 0.744049, -0.91042, 0.30416, 0.696578, -0.935414, 0.797948, -0.231895, -0.327014, 0.376196, 0.085562, -0.420352, -0.638996, 0.24237, -0.096995, 0.295777, 0.366835, 0.069234, 0.135366, -0.194161, 0.190247, -0.478106, -0.150031, 0.125765, -0.505506, -0.070287, 0.031646, 0.104401, 0.992274, -0.285246, 0.120441, 0.845924, -0.314361, 0.609487, 0.797891, -1.082508, -0.413937, -0.193271, 0.249463, 0.381468, 0.469977, -0.653861, 0.361676, 0.453849, -0.637506, 0.220332, -0.044227, -0.147702, 0.60063, -0.304968, -0.2799, 0.104454, -0.187769, -0.151318, 0.621669, 0.491326, -0.936908, 0.787397, -0.363952, -0.265824, 0.403341, -0.088734, 0.478694, 0.295211, 0.170418, 0.309841, 0.217612, 0.432785, 0.0636, -0.522538, -0.116344, 0.097224, 0.105125, 0.904839, -0.312281, 0.150412, 0.579486, -0.207107, 0.139023, 0.807544, -0.299805, -0.329756, -0.209056, 0.047303, 0.272558, 0.527742, 0.00896, 0.285198, 0.432002, 0.203821, 0.302955, 0.34566, 0.322767, 0.186372, -0.435428, -0.011288, 0.195219, -0.559519, 0.501374, 0.320926, -0.457993, 0.500862, 0.343184, -0.20845, 0.458209, 0.352068, -0.161269, 0.319662, 0.303547, 0.249374, -0.058654, 0.273938, 0.241004, -0.018349, 0.223398, 0.191589, 0.016755, 0.143101, 0.228401, 0.008, 0.182997, 0.197353, -0.027991, 0.511084, -0.108723, 0.061164, -0.158408, 0.073627, -0.140979, 0.252139, 0.503141, -0.225717, 0.196854, 0.543359, -0.204711, -0.354989, 0.052306, 0.025808, -0.403034, -0.057529, 0.18192, -0.444552, -0.021373, -0.000242, 0.257367, -0.330993, 0.381809, 0.435982, -0.278003, 0.276956, -0.343005, -0.177503, 0.300414, 0.49058, -0.172363, -0.288562, 0.373964, -0.25236, -0.219342, 0.473745, 0.815466, -0.934203, 0.326951, -0.086353, 0.011992, 0.336906, 0.068797, -0.416098, -0.021812, -0.163106, -0.114725, 0.056426, 0.011401, -0.049486, -1.046825, -0.302037, 0.263271, -0.880364, -0.346194, 0.186439, -0.338748, -0.685246, 0.543307, -0.644055, 0.222705, -0.387838, -0.030788, -0.404126, 0.3292, -0.323548, -0.220152, 0.0906, 0.627789, -0.432594, 0.112074, -0.556393, -0.536631, 0.496082, -0.367829, -0.54787, 0.580906, -0.284593, -0.497501, 0.589407, -0.163969, -0.502784, 0.563767, -0.157427, -0.453512, 0.442792, -0.15891, -0.516874, 0.184457, 0.753457, -0.325241, 0.168525, -0.27082, 0.265249, -0.5766, -0.158759, -0.107088, -0.156251, -0.058023, -0.231193, 0.371046, 0.837559, -0.241078, -0.054533, -0.223291, -0.337962, 0.312272, -0.301103, -0.050832, 0.35103, -1.650149, 0.170781, -0.164018, -0.276925, -0.268839, 0.160488, 0.303925, -0.160175, 0.059286, -0.816171, -0.452762, 0.348775, -0.185539, -0.310414, 0.076076, -0.105461, -0.021296, 0.242068, -0.143037, -0.160954, 0.134485, 0.515763, -0.176733, 0.130931, 0.093446, -0.126276, 0.331744, 0.711882, -0.362856, -0.126468, -0.183181, 0.28282, -0.116632, -0.268951, 0.071115, -0.111713, 0.051516, -0.183478, 0.366765, -0.830745, 0.090092, -0.31741, -0.534334, -0.583346, 0.532597, 0.004412, -0.899138, 0.724261, 0.093562, 0.67087, -0.203661, 0.703326, -0.21938, 0.243617, -0.119456, 0.408436, -0.476448, -0.353744, 0.178073, -0.267611, -0.324692, 0.000658, -0.092706, -0.074628, -0.102981, -0.085657, 0.160226, 0.411774, -0.56029, 0.048954, -1.003366, 0.722721, -0.092179, -0.887402, 0.630538, -0.457354, -0.714733, 0.519456, -0.037473, 0.226655, -0.627085, -0.510985, 1.019031, -0.914097, -0.47488, 1.800975, -1.632237, -0.364301, 2.016733, -1.777229, -0.424151, 1.691804, -1.502314, -0.957646, 1.224476, -1.047004, 0.964135, -0.300428, -0.159515, -1.106737, -0.264034, 0.289434, -0.127197, 0.27937, -0.149868, -0.02526, 0.137292, 0.004519, -0.474594, -0.19293, 0.068369, -0.144401, 0.227936, -0.064054, -0.117795, -0.40997, 0.105584, -0.273843, 0.09758, 0.11894, -0.290012, 0.246106, 0.003752, -0.039641, 0.258684, -0.172227, -0.012477, -0.250198, 0.215622, -0.737358, 0.085645, -0.114496, -0.127508, -0.380466, 0.191786, 0.136776, 0.332625, -0.27908, -0.2685, 0.34137, -0.381728, 0.416799, -0.165117, 0.200916, 0.337498, 0.030921, 0.155275, 0.329952, -0.002223, 0.230557, 0.306308, -0.146751, 0.274587, 0.206199, -0.195344, 0.278964, 0.297029, -0.302, -0.009758, 0.236189, 0.638721, -0.2098, 0.173933, 0.679744, -0.178032, 0.098645, 0.707685, -0.150136, 0.335986, 0.303314, -0.034131, 0.732127, -0.232377, 0.252662, -0.11767, -0.437257, 0.237799, -0.326289, -0.15454, 0.079079, -0.541157, -0.183356, 0.129791, 0.285662, 0.649973, -0.161424, 0.378265, -0.113935, 0.283114, 0.033288, -0.138855, -0.044408, 0.178729, -0.145895, -0.048459, -0.078131, -0.425799, 0.05922, -0.158605, -0.510736, 0.107817, -0.118934, -0.519486, 0.09536, -0.152214, -0.280443, 0.187176, 0.105896, 0.128891, -0.158863, 0.077304, -0.124782, -0.029951, 0.164601, -0.172796, 0.001509, 0.044843, 0.155115, 0.067986, -0.114108, -0.062838, 0.258823, 0.109617, -0.004022, -0.00124, 0.476648, -0.180087, 0.259661, 0.17274, -0.031176, 0.148661, 0.530855, -0.089226, 0.221372, 0.089637, 0.051394, -0.067946, -0.183582, -0.239071, 0.294476, -0.093108, 0.110377, 0.109371, -0.100668, 0.181184, 0.046536, 0.165614, 0.25209, 0.156449, 0.528764, -0.179184, 0.282718, 0.195808, -0.012795, 0.196033, 0.252195, -0.13191, 0.316481, 0.306898, 0.103581, 0.067797, -0.091951, -0.298538, 0.291702, -0.316588, -0.249658, 0.031205, -0.447041, -0.202611, 0.158248, -0.274772, -0.226618, -0.04484, -0.259562, 0.140218, -0.15204, -0.239225, 0.307466, -0.301693, -0.264137, 0.350059, -0.332445, -0.239961, 0.367118, -0.352175, -0.348058, 0.33316, -0.415076, -1.177293, 0.090355, -0.275075, 0.589051, -0.263536, 0.076917, -0.848148, -0.298794, 0.267705, -0.351987, -0.431612, 0.348489, -0.12139, -0.559731, 0.49751, 0.008355, -0.636473, 0.581291, -0.090323, -0.593576, 0.47465, -0.219458, -0.462057, 0.412983, 0.717152, -0.164217, -0.008496, -0.465004, -0.173993, 0.17588, -0.125505, -0.306342, 0.146246, -0.28404, -0.198378, -0.076633, -0.292762, -0.16611, -0.090613, -0.310363, -0.215994, -0.04155, -0.447935, -0.132316, 0.139883, -0.235038, -0.141148, -0.125015, -0.345919, 0.006276, -0.089708, -0.641927, -0.535337, 0.432581, -0.38607, -0.383832, 0.290199, -0.288141, -0.287379, 0.179662, -1.49651, 0.830647, -0.675021, -0.947091, 0.257144, -0.239302, -0.060755, -0.392659, 0.029357, 0.674734, 0.37579, -0.404147, 0.128287, -0.05535, -0.114665, -0.651932, -0.158524, -0.22107, -0.733712, -0.932457, 0.816386, -0.622102, -0.953193, 0.799947, -0.355936, -0.613233, 0.494561, 0.81515, 0.351964, -0.433851, -0.686593, -0.597068, 0.574476, -0.089307, 0.744623, -0.455672, 0.00336, 0.681967, -0.436822, -0.069494, 0.746998, -0.391075, 0.054623, 0.747268, -0.415541, 0.376878, 0.029262, -0.184905, 0.204996, 0.14342, -0.20072, 0.880323, 1.166665, -1.097848, -0.559227, -0.230423, -0.257561, 0.350342, 0.296067, -0.481641, -0.221704, -0.07244, 0.231384, 0.424499, -0.416544, 0.518303, 0.262417, 0.008579, 0.291064, 0.320113, -0.232527, 0.211929, 0.041336, 0.037121, -0.148694, 0.116758, 0.069836, 0.076982, -0.097585, 0.238461, -0.162206, -0.147782, 0.177332, -0.115037, 0.038889, -0.097823, -0.202808, 0.051674, -0.179704, -0.149568, 0.438653, -0.156499, -0.225739, -0.220014, -0.373789, 0.28455, 0.213512, -0.191693, 0.100437, 0.188357, -0.215113, 0.170474, -0.612354, -0.116026, 0.132688, -0.003502, -0.315423, -0.063663, 0.232887, -0.191606, -0.12586, 0.3476, -0.159231, -0.198894, -0.399869, -0.069823, -0.215565, -0.233652, -0.094758, -0.240599, 0.062434, 0.47185, -0.308871, -0.167849, 0.434489, -0.191529, 0.225072, -0.011854, -0.165855, 0.21966, -0.096302, 0.070563, 0.220329, -0.01721, 0.03328, -0.618597, 0.644949, -0.662636, -0.497045, 0.544071, -0.600807, 0.457782, -0.331557, -0.121246, 0.23495, -0.170536, 0.145863, 0.052947, -0.107387, -0.075387, 0.222687, -0.365459, 0.075471, -0.096871, 0.023377, -0.039536, -0.346938, -0.036853, -0.273393, -0.221713, -0.012387, -0.087091, 0.464462, -0.289999, -0.224979, -0.517188, -0.144063, -0.364614, 0.347287, -0.222117, 0.408664, 0.223227, -0.071134, 0.157015, -0.008565, 0.12841, -0.132423, 0.224381, -0.079626, 0.042767, -0.55693, 0.588778, -0.631075, -0.34342, 0.306704, -0.399793, -0.467261, 0.513256, -0.565556, 0.12244, -0.24295, -0.096767, -0.121895, 0.340043, -0.150817, 0.037122, 0.280159, 0.071677, 0.165365, 0.251491, 0.244329, -0.013043, -0.38854, -0.014891, 0.05849, -0.698711, 0.510308, 0.178191, -0.572675, 0.473187, 0.208118, -0.300093, 0.393884, 0.190376, -0.232123, 0.233885, -0.10583, 0.074031, -0.225347, -0.081783, 0.060266, -0.125414, -0.115259, -0.041391, -0.076102, -0.236872, -0.06539, -0.084273, -0.111574, 0.234822, -0.149972, -0.511084, 0.108723, -0.061164, -0.281253, 0.264141, -0.46405, -0.286092, 0.299942, -0.406154, 0.086193, 0.041402, -0.035612, 0.185957, -0.022718, 0.141232, 0.16341, 0.004474, -0.01377, -0.366514, -0.300123, 0.300937, -0.484656, -0.174414, 0.215565, 0.17291, -0.151193, 0.191044, -0.178028, -0.021665, -0.119499, -0.231084, 0.02019, -0.14057, 0.394099, -0.368643, -0.005901, -0.137674, -0.079113, -0.116305, -0.054272, -0.362905, -0.074341, -0.175108, -0.070899, -0.068487, -0.004627, 0.067048, 0.047866, 0.281176, -0.210307, 0.079041, 0.280091, -0.138203, -0.015555, -0.446882, -0.38421, 0.358477, 0.430033, 0.3816, -0.50011, -0.167782, -0.415052, 0.251434, 0.149474, -0.214246, -0.008773, -0.59719, -0.284387, -0.103529, 0.246707, -0.460633, 0.342732, 0.270071, -0.646367, 0.55155, -0.031962, -0.574899, 0.553561, -0.329869, -0.4285, 0.492393, -0.389538, -0.288438, 0.378966, -0.113356, -0.517422, 0.131305, -0.660283, -0.163178, -0.065663, 0.369188, 0.165259, -0.453228, 0.040476, -0.122095, -0.214702, -0.094356, -0.251287, 0.262406, -0.909953, -0.080912, -0.170794, -0.312102, -0.23266, 0.219112, 0.069077, -0.046847, 0.228289, 0.86885, 0.751898, -0.784749, 0.154299, -0.261658, 0.070792, -0.134455, 0.094567, -0.117166, -0.03027, -0.135215, 0.008609, 0.084935, -0.309953, -0.020932, 0.41706, 0.005445, -0.193525, 0.612635, -0.185025, -0.308232, -0.585026, -0.035859, -0.194049, 0.217566, -0.024568, -0.120112, -0.584528, -0.196604, -0.290062, 0.452976, 0.272687, -0.333004, -0.043965, 0.06559, -0.14202, -0.130008, -0.161209, 0.282202, 0.394021, 0.267252, -0.494864, -0.259488, -0.890098, 0.730771, -0.637483, -1.257751, 1.075736, -0.428432, 0.354391, -0.422397, -0.473994, -0.034901, -0.002262, 0.440482, 0.339899, -0.618552, 0.63346, -0.024766, -0.582008, 0.679938, -0.164976, -0.486609, -0.651866, -1.145602, 0.981675, -0.565144, -0.783224, 0.671109, -0.286646, -0.463324, 0.33029, 0.335341, 0.06291, -0.47637, -0.398934, 1.793266, -1.493793, -0.560153, 2.903401, -2.412074, -0.768856, 3.352615, -2.665028, -0.620729, 3.087777, -2.419979, -0.088617, 2.444619, -1.975091, -0.863572, -0.120149, -0.204395, 0.203899, -0.268794, 0.157893, -0.029304, 0.136126, -0.090047, 0.201709, -0.169056, 0.001107, -0.018842, 0.218048, -0.113426, 0.545534, 0.106848, -0.23977, 0.563035, 0.227957, -0.272253, 0.344299, 0.291323, -0.299375, 0.450926, -0.122549, -0.195993, -0.086975, 0.56281, -0.577077, -0.07895, -0.387265, 0.133408, 0.560892, 0.166037, -0.644836, -0.313663, -0.000299, -0.171249, 0.057979, -0.108334, 0.028658, 0.074576, -0.14963, 0.145327, 0.023413, -0.357493, 0.197896, -0.107432, -0.468924, 0.214046, -0.094982, -0.305676, -0.096699, -0.320958, 0.39112, -0.424655, -0.301247, 0.375251, -0.454807, -0.25243, 0.355375, -0.470683, -0.216103, 0.335983, -0.232049, -0.421645, -0.014927, 0.123593, -0.135369, -0.437694, 0.182097, -0.089518, -0.009981, 0.01541, -0.156502, 0.027656, -0.096342, -0.310198, 0.407135, -0.396654, -0.06089, 0.053168, 0.015813, -0.111023, -0.126717, -0.094899, 0.030375, -0.097536, -0.145178, -0.0651, -0.508903, 0.073509, -0.002017, -0.267029, 0.120557, 0.030951, -0.095906, -0.015639, 0.165979, 0.206914, -0.176634, 0.034646, -0.001024, 0.148412, 0.115919, 0.028159, -0.155782, -0.272536, -0.008489, 0.205335, -0.098891, 0.073466, 0.043658, -0.200003, 0.091185, 0.099809, 0.161064, 0.123287, -0.148007, 0.043632, -0.232573, 0.21277, 0.3492, 0.173398, -0.169727, 0.337553, 0.220266, -0.16002, 0.048713, 0.334973, -0.147581, -0.205454, 0.015679, 0.013471, 0.146416, 0.113117, -0.079296, -0.015622, 0.000312, -0.132105, -0.097231, 0.237397, -0.072646, -0.088738, -0.319539, 0.190936, 0.151815, -0.26181, -0.087252, 0.237003, -0.169415, 0.076887, 0.106658, -0.186404, -0.094316, 0.017538, 0.130401, -0.101395, 0.089382, 0.135048, -0.108759, 0.186883, 0.102282, -0.115457, 0.267599, 0.169908, -0.143038, 0.41983, 0.253621, -0.299537, 0.587375, 0.465617, -0.630354, -0.64868, -0.152996, -0.234298, 0.312559, -0.15154, 0.034522, -0.070336, -0.479361, 0.362565, -0.352673, -0.615699, 0.562398, -0.519121, -0.556966, 0.58085, -0.555191, -0.386409, 0.431257, -0.425402, -0.260684, 0.299422, -0.779073, 0.002044, -0.121201, 0.242489, -0.145484, 0.091981, -0.055611, -0.315527, 0.066138, 0.134565, -0.196525, -0.168296, 0.169521, -0.170628, -0.162967, 0.148982, -0.223825, -0.141718, 0.228375, -0.094301, 0.095702, 0.114545, -0.139437, -0.180418, 0.061152, 0.003354, -0.136756, -0.227542, -0.244058, 0.214246, -0.234142, -0.219043, 0.142888, -0.172351, -0.201917, 0.095982, 0.468245, 1.829819, -1.58054, 0.500417, 0.75701, -0.553196, -2.180008, 0.952504, -0.142557, -2.809665, 0.907129, 0.176722, -2.102346, 1.275936, -0.115439, -1.489878, 0.945446, -0.443864, -2.275852, 0.562768, -0.114049, -0.806972, 0.887498, -0.376606, -1.038979, 1.075835, -0.257271, -0.744896, 1.039377, -0.304189, -0.612104, 0.656488, -0.483045, -0.866206, 0.621802, -0.376438]}